<?xml version="1.0"?>
<opencv_storage>
<stage17>
  <maxWeakCount>4</maxWeakCount>
  <stageThreshold>-4.1145241993945092e-05</stageThreshold>
  <weakClassifiers>
    <_>
      <internalNodes>
        0 -1 7676 759166783 -268714114 -9 -33816584 -1073791146 -65545
        -4201355 2075901815</internalNodes>
      <leafValues>
        -5.3600001335144043e-01 8.6666667461395264e-01</leafValues></_>
    <_>
      <internalNodes>
        0 -1 22398 1627914648 1627472256 1073922304 545292288
        -1073610104 16384 16514 -1601650166</internalNodes>
      <leafValues>
        -8.3113306760787964e-01 7.1241480112075806e-01</leafValues></_>
    <_>
      <internalNodes>
        0 -1 36874 1074135235 1359091715 3 151093249 -1878816765
        562036737 8388610 -1197419766</internalNodes>
      <leafValues>
        -7.2979694604873657e-01 8.2529127597808838e-01</leafValues></_>
    <_>
      <internalNodes>
        0 -1 24360 822345926 -266698752 16793621 -922746880 570425480
        964820995 8521921 9572490</internalNodes>
      <leafValues>
        -8.4932559728622437e-01 6.8403506278991699e-01</leafValues></_></weakClassifiers></stage17>
</opencv_storage>
